<?xml version="1.0"?>
<opencv_storage>
<cascade>
  <stageType>BOOST</stageType>
  <featureType>HAAR</featureType>
  <height>24</height>
  <width>16</width>
  <stageParams>
    <boostType>GAB</boostType>
    <minHitRate>9.9500000476837158e-01</minHitRate>
    <maxFalseAlarm>5.0000000000000000e-01</maxFalseAlarm>
    <weightTrimRate>9.4999999999999996e-01</weightTrimRate>
    <maxDepth>1</maxDepth>
    <maxWeakCount>100</maxWeakCount></stageParams>
  <featureParams>
    <maxCatCount>0</maxCatCount>
    <featSize>1</featSize>
    <mode>BASIC</mode></featureParams>
  <stageNum>12</stageNum>
  <stages>
    <!-- stage 0 -->
    <_>
      <maxWeakCount>6</maxWeakCount>
      <stageThreshold>-7.1483671665191650e-01</stageThreshold>
      <weakClassifiers>
        <_>
          <internalNodes>
            0 -1 18 -3.6226633191108704e-01</internalNodes>
          <leafValues>
            8.3606559038162231e-01 -6.1632651090621948e-01</leafValues></_>
        <_>
          <internalNodes>
            0 -1 32 6.3435087213292718e-05</internalNodes>
          <leafValues>
            -4.5118352770805359e-01 6.7305737733840942e-01</leafValues></_>
        <_>
          <internalNodes>
            0 -1 40 7.8338918683584780e-05</internalNodes>
          <leafValues>
            -4.1574260592460632e-01 6.8417602777481079e-01</leafValues></_>
        <_>
          <internalNodes>
            0 -1 59 -2.3644609609618783e-04</internalNodes>
          <leafValues>
            -9.4986468553543091e-01 3.7068507075309753e-01</leafValues></_>
        <_>
          <internalNodes>
            0 -1 38 1.6777165001258254e-05</internalNodes>
          <leafValues>
            -3.6769920587539673e-01 7.9087644815444946e-01</leafValues></_>
        <_>
          <internalNodes>
            0 -1 34 2.8186442330479622e-02</internalNodes>
          <leafValues>
            -3.3448860049247742e-01 9.0170860290527344e-01</leafValues></_></weakClassifiers></_>
    <!-- stage 1 -->
    <_>
      <maxWeakCount>4</maxWeakCount>
      <stageThreshold>-8.5403168201446533e-01</stageThreshold>
      <weakClassifiers>
        <_>
          <internalNodes>
            0 -1 6 -2.0084434747695923e-01</internalNodes>
          <leafValues>
            8.3870965242385864e-01 -6.2295079231262207e-01</leafValues></_>
        <_>
          <internalNodes>
            0 -1 44 7.1266130544245243e-04</internalNodes>
          <leafValues>
            -4.5794582366943359e-01 6.8454051017761230e-01</leafValues></_>
        <_>
          <internalNodes>
            0 -1 26 -3.5991246113553643e-04</internalNodes>
          <leafValues>
            7.0873332023620605e-01 -4.0756595134735107e-01</leafValues></_>
        <_>
          <internalNodes>
            0 -1 42 9.0250410721637309e-05</internalNodes>
          <leafValues>
            -4.8186838626861572e-01 6.8406635522842407e-01</leafValues></_></weakClassifiers></_>
    <!-- stage 2 -->
    <_>
      <maxWeakCount>5</maxWeakCount>
      <stageThreshold>-1.0046192407608032e+00</stageThreshold>
      <weakClassifiers>
        <_>
          <internalNodes>
            0 -1 36 -3.5512982867658138e-04</internalNodes>
          <leafValues>
            5.3246754407882690e-01 -6.1572051048278809e-01</leafValues></_>
        <_>
          <internalNodes>
            0 -1 11 -2.9393639415502548e-02</internalNodes>
          <leafValues>
            7.3690289258956909e-01 -5.2887022495269775e-01</leafValues></_>
        <_>
          <internalNodes>
            0 -1 37 -1.7385182436555624e-03</internalNodes>
          <leafValues>
            8.0379748344421387e-01 -3.7302547693252563e-01</leafValues></_>
        <_>
          <internalNodes>
            0 -1 50 1.8148432718589902e-04</internalNodes>
          <leafValues>
            -2.4622187018394470e-01 8.7845999002456665e-01</leafValues></_>
        <_>
          <internalNodes>
            0 -1 54 -1.3580766972154379e-04</internalNodes>
          <leafValues>
            7.5921887159347534e-01 -3.2988646626472473e-01</leafValues></_></weakClassifiers></_>
    <!-- stage 3 -->
    <_>
      <maxWeakCount>5</maxWeakCount>
      <stageThreshold>-1.4417002201080322e+00</stageThreshold>
      <weakClassifiers>
        <_>
          <internalNodes>
            0 -1 24 -2.8858471661806107e-02</internalNodes>
          <leafValues>
            5.1219511032104492e-01 -6.3392859697341919e-01</leafValues></_>
        <_>
          <internalNodes>
            0 -1 43 -2.6011763839051127e-04</internalNodes>
          <leafValues>
            6.8241035938262939e-01 -4.5593973994255066e-01</leafValues></_>
        <_>
          <internalNodes>
            0 -1 25 1.5174325555562973e-02</internalNodes>
          <leafValues>
            -4.2476275563240051e-01 8.2418727874755859e-01</leafValues></_>
        <_>
          <internalNodes>
            0 -1 29 6.3918054103851318e-02</internalNodes>
          <leafValues>
            4.7309175133705139e-01 -7.9031753540039063e-01</leafValues></_>
        <_>
          <internalNodes>
            0 -1 47 1.1707549856510013e-04</internalNodes>
          <leafValues>
            -4.0016090869903564e-01 7.8074967861175537e-01</leafValues></_></weakClassifiers></_>
    <!-- stage 4 -->
    <_>
      <maxWeakCount>6</maxWeakCount>
      <stageThreshold>-8.2576197385787964e-01</stageThreshold>
      <weakClassifiers>
        <_>
          <internalNodes>
            0 -1 39 -4.1998730739578605e-04</internalNodes>
          <leafValues>
            7.0909088850021362e-01 -5.5378484725952148e-01</leafValues></_>
        <_>
          <internalNodes>
            0 -1 41 -1.8383382121101022e-04</internalNodes>
          <leafValues>
            5.9092998504638672e-01 -4.4813853502273560e-01</leafValues></_>
        <_>
          <internalNodes>
            0 -1 33 -1.6386646893806756e-04</internalNodes>
          <leafValues>
            6.3642597198486328e-01 -4.2387974262237549e-01</leafValues></_>
        <_>
          <internalNodes>
            0 -1 61 -2.0606848411262035e-03</internalNodes>
          <leafValues>
            -7.5474637746810913e-01 3.8448035717010498e-01</leafValues></_>
        <_>
          <internalNodes>
            0 -1 46 -2.1398146636784077e-03</internalNodes>
          <leafValues>
            6.6415637731552124e-01 -4.1047462821006775e-01</leafValues></_>
        <_>
          <internalNodes>
            0 -1 31 -3.2566566369496286e-04</internalNodes>
          <leafValues>
            7.6144474744796753e-01 -3.6967459321022034e-01</leafValues></_></weakClassifiers></_>
    <!-- stage 5 -->
    <_>
      <maxWeakCount>6</maxWeakCount>
      <stageThreshold>-8.8215154409408569e-01</stageThreshold>
      <weakClassifiers>
        <_>
          <internalNodes>
            0 -1 9 -2.8441059403121471e-03</internalNodes>
          <leafValues>
            7.0967739820480347e-01 -5.9016394615173340e-01</leafValues></_>
        <_>
          <internalNodes>
            0 -1 53 1.1706721037626266e-02</internalNodes>
          <leafValues>
            -4.1116574406623840e-01 7.7995091676712036e-01</leafValues></_>
        <_>
          <internalNodes>
            0 -1 20 -1.4069171622395515e-02</internalNodes>
          <leafValues>
            6.7063510417938232e-01 -4.6301227807998657e-01</leafValues></_>
        <_>
          <internalNodes>
            0 -1 8 -1.0262820124626160e-01</internalNodes>
          <leafValues>
            -9.6027284860610962e-01 3.5071903467178345e-01</leafValues></_>
        <_>
          <internalNodes>
            0 -1 49 -2.0668737590312958e-02</internalNodes>
          <leafValues>
            9.3279129266738892e-01 -4.2455911636352539e-01</leafValues></_>
        <_>
          <internalNodes>
            0 -1 28 2.3051106836646795e-03</internalNodes>
          <leafValues>
            -4.6646636724472046e-01 7.1108162403106689e-01</leafValues></_></weakClassifiers></_>
    <!-- stage 6 -->
    <_>
      <maxWeakCount>7</maxWeakCount>
      <stageThreshold>-1.1105341911315918e+00</stageThreshold>
      <weakClassifiers>
        <_>
          <internalNodes>
            0 -1 10 -9.0853095054626465e-02</internalNodes>
          <leafValues>
            4.4578313827514648e-01 -6.1434978246688843e-01</leafValues></_>
        <_>
          <internalNodes>
            0 -1 21 -8.7941269157454371e-05</internalNodes>
          <leafValues>
            -8.8743233680725098e-01 1.7352041602134705e-01</leafValues></_>
        <_>
          <internalNodes>
            0 -1 52 -4.5666158199310303e-02</internalNodes>
          <leafValues>
            7.5975972414016724e-01 -3.0352139472961426e-01</leafValues></_>
        <_>
          <internalNodes>
            0 -1 27 -3.5339388996362686e-02</internalNodes>
          <leafValues>
            5.6900876760482788e-01 -3.1115862727165222e-01</leafValues></_>
        <_>
          <internalNodes>
            0 -1 2 -3.0835167854093015e-04</internalNodes>
          <leafValues>
            -8.0917352437973022e-01 2.6574406027793884e-01</leafValues></_>
        <_>
          <internalNodes>
            0 -1 4 9.5325108850374818e-04</internalNodes>
          <leafValues>
            2.7993205189704895e-01 -7.2714418172836304e-01</leafValues></_>
        <_>
          <internalNodes>
            0 -1 30 1.2238841736689210e-03</internalNodes>
          <leafValues>
            -5.2943176031112671e-01 4.0637531876564026e-01</leafValues></_></weakClassifiers></_>
    <!-- stage 7 -->
    <_>
      <maxWeakCount>4</maxWeakCount>
      <stageThreshold>-7.5253069400787354e-01</stageThreshold>
      <weakClassifiers>
        <_>
          <internalNodes>
            0 -1 17 -5.1178109645843506e-01</internalNodes>
          <leafValues>
            8.3333331346511841e-01 -5.4263567924499512e-01</leafValues></_>
        <_>
          <internalNodes>
            0 -1 59 4.4561835238710046e-05</internalNodes>
          <leafValues>
            3.8704988360404968e-01 -7.8596353530883789e-01</leafValues></_>
        <_>
          <internalNodes>
            0 -1 13 5.8134952269028872e-05</internalNodes>
          <leafValues>
            3.3491820096969604e-01 -7.2442072629928589e-01</leafValues></_>
        <_>
          <internalNodes>
            0 -1 15 1.4133422519080341e-04</internalNodes>
          <leafValues>
            2.4115030467510223e-01 -9.1457808017730713e-01</leafValues></_></weakClassifiers></_>
    <!-- stage 8 -->
    <_>
      <maxWeakCount>5</maxWeakCount>
      <stageThreshold>-7.5608545541763306e-01</stageThreshold>
      <weakClassifiers>
        <_>
          <internalNodes>
            0 -1 7 -1.4293275773525238e-01</internalNodes>
          <leafValues>
            7.5999999046325684e-01 -5.3906250000000000e-01</leafValues></_>
        <_>
          <internalNodes>
            0 -1 0 1.6646699805278331e-05</internalNodes>
          <leafValues>
            2.7352017164230347e-01 -9.0134090185165405e-01</leafValues></_>
        <_>
          <internalNodes>
            0 -1 1 -4.5403685362543911e-05</internalNodes>
          <leafValues>
            -8.3495062589645386e-01 2.6295357942581177e-01</leafValues></_>
        <_>
          <internalNodes>
            0 -1 58 -1.3793111429549754e-04</internalNodes>
          <leafValues>
            -9.4950741529464722e-01 1.9586260616779327e-01</leafValues></_>
        <_>
          <internalNodes>
            0 -1 56 2.0251754904165864e-04</internalNodes>
          <leafValues>
            2.2550177574157715e-01 -8.5873025655746460e-01</leafValues></_></weakClassifiers></_>
    <!-- stage 9 -->
    <_>
      <maxWeakCount>5</maxWeakCount>
      <stageThreshold>-1.4329277276992798e+00</stageThreshold>
      <weakClassifiers>
        <_>
          <internalNodes>
            0 -1 55 1.6382637113565579e-05</internalNodes>
          <leafValues>
            5.3254436701536179e-02 -7.9562044143676758e-01</leafValues></_>
        <_>
          <internalNodes>
            0 -1 62 -1.4063231355976313e-04</internalNodes>
          <leafValues>
            -8.9510726928710938e-01 2.1995900571346283e-01</leafValues></_>
        <_>
          <internalNodes>
            0 -1 14 2.6264604181051254e-02</internalNodes>
          <leafValues>
            -3.4901607036590576e-01 6.7877662181854248e-01</leafValues></_>
        <_>
          <internalNodes>
            0 -1 3 -8.7207416072487831e-03</internalNodes>
          <leafValues>
            -7.0636790990829468e-01 3.0449658632278442e-01</leafValues></_>
        <_>
          <internalNodes>
            0 -1 57 -1.2464134488254786e-03</internalNodes>
          <leafValues>
            -1. 1.9811770319938660e-01</leafValues></_></weakClassifiers></_>
    <!-- stage 10 -->
    <_>
      <maxWeakCount>6</maxWeakCount>
      <stageThreshold>-9.3555140495300293e-01</stageThreshold>
      <weakClassifiers>
        <_>
          <internalNodes>
            0 -1 48 4.0136419236660004e-02</internalNodes>
          <leafValues>
            -5.9276020526885986e-01 3.6470589041709900e-01</leafValues></_>
        <_>
          <internalNodes>
            0 -1 35 1.6463948122691363e-04</internalNodes>
          <leafValues>
            -3.8744246959686279e-01 4.2042466998100281e-01</leafValues></_>
        <_>
          <internalNodes>
            0 -1 5 9.9086798727512360e-03</internalNodes>
          <leafValues>
            2.2674953937530518e-01 -7.8692865371704102e-01</leafValues></_>
        <_>
          <internalNodes>
            0 -1 22 -6.0104891657829285e-02</internalNodes>
          <leafValues>
            -7.2402280569076538e-01 2.9799139499664307e-01</leafValues></_>
        <_>
          <internalNodes>
            0 -1 19 1.8957108259201050e-02</internalNodes>
          <leafValues>
            1.3252089917659760e-01 -9.3330591917037964e-01</leafValues></_>
        <_>
          <internalNodes>
            0 -1 45 -9.4294449081644416e-04</internalNodes>
          <leafValues>
            4.9848380684852600e-01 -4.0679952502250671e-01</leafValues></_></weakClassifiers></_>
    <!-- stage 11 -->
    <_>
      <maxWeakCount>5</maxWeakCount>
      <stageThreshold>-6.2016195058822632e-01</stageThreshold>
      <weakClassifiers>
        <_>
          <internalNodes>
            0 -1 12 -1.5736664831638336e-01</internalNodes>
          <leafValues>
            7.3584908246994019e-01 -5.4940712451934814e-01</leafValues></_>
        <_>
          <internalNodes>
            0 -1 60 6.7136163124814630e-04</internalNodes>
          <leafValues>
            2.0678669214248657e-01 -7.5572246313095093e-01</leafValues></_>
        <_>
          <internalNodes>
            0 -1 51 -1.2623852491378784e-01</internalNodes>
          <leafValues>
            9.2702281475067139e-01 -2.1279110014438629e-01</leafValues></_>
        <_>
          <internalNodes>
            0 -1 23 -3.7870720028877258e-02</internalNodes>
          <leafValues>
            6.0558384656906128e-01 -2.7232682704925537e-01</leafValues></_>
        <_>
          <internalNodes>
            0 -1 16 5.6804660707712173e-03</internalNodes>
          <leafValues>
            2.0757640898227692e-01 -8.7589579820632935e-01</leafValues></_></weakClassifiers></_></stages>
  <features>
    <_>
      <rects>
        <_>
          0 0 1 2 -1.</_>
        <_>
          0 1 1 1 2.</_></rects>
      <tilted>0</tilted></_>
    <_>
      <rects>
        <_>
          0 0 1 3 -1.</_>
        <_>
          0 1 1 1 3.</_></rects>
      <tilted>0</tilted></_>
    <_>
      <rects>
        <_>
          0 0 1 6 -1.</_>
        <_>
          0 3 1 3 2.</_></rects>
      <tilted>0</tilted></_>
    <_>
      <rects>
        <_>
          0 0 1 24 -1.</_>
        <_>
          0 12 1 12 2.</_></rects>
      <tilted>0</tilted></_>
    <_>
      <rects>
        <_>
          0 0 2 6 -1.</_>
        <_>
          0 3 2 3 2.</_></rects>
      <tilted>0</tilted></_>
    <_>
      <rects>
        <_>
          0 2 1 22 -1.</_>
        <_>
          0 13 1 11 2.</_></rects>
      <tilted>0</tilted></_>
    <_>
      <rects>
        <_>
          0 3 8 20 -1.</_>
        <_>
          4 3 4 20 2.</_></rects>
      <tilted>0</tilted></_>
    <_>
      <rects>
        <_>
          0 3 15 5 -1.</_>
        <_>
          5 3 5 5 3.</_></rects>
      <tilted>0</tilted></_>
    <_>
      <rects>
        <_>
          0 11 16 6 -1.</_>
        <_>
          8 11 8 6 2.</_></rects>
      <tilted>0</tilted></_>
    <_>
      <rects>
        <_>
          0 12 6 1 -1.</_>
        <_>
          2 12 2 1 3.</_></rects>
      <tilted>0</tilted></_>
    <_>
      <rects>
        <_>
          0 14 8 10 -1.</_>
        <_>
          4 14 4 10 2.</_></rects>
      <tilted>0</tilted></_>
    <_>
      <rects>
        <_>
          0 14 14 9 -1.</_>
        <_>
          0 17 14 3 3.</_></rects>
      <tilted>0</tilted></_>
    <_>
      <rects>
        <_>
          0 16 15 5 -1.</_>
        <_>
          5 16 5 5 3.</_></rects>
      <tilted>0</tilted></_>
    <_>
      <rects>
        <_>
          0 20 1 4 -1.</_>
        <_>
          0 22 1 2 2.</_></rects>
      <tilted>0</tilted></_>
    <_>
      <rects>
        <_>
          0 20 15 4 -1.</_>
        <_>
          0 22 15 2 2.</_></rects>
      <tilted>0</tilted></_>
    <_>
      <rects>
        <_>
          0 23 2 1 -1.</_>
        <_>
          1 23 1 1 2.</_></rects>
      <tilted>0</tilted></_>
    <_>
      <rects>
        <_>
          0 23 6 1 -1.</_>
        <_>
          2 23 2 1 3.</_></rects>
      <tilted>0</tilted></_>
    <_>
      <rects>
        <_>
          1 0 15 22 -1.</_>
        <_>
          6 0 5 22 3.</_></rects>
      <tilted>0</tilted></_>
    <_>
      <rects>
        <_>
          1 0 15 23 -1.</_>
        <_>
          6 0 5 23 3.</_></rects>
      <tilted>0</tilted></_>
    <_>
      <rects>
        <_>
          1 0 14 2 -1.</_>
        <_>
          8 0 7 2 2.</_></rects>
      <tilted>0</tilted></_>
    <_>
      <rects>
        <_>
          1 15 10 9 -1.</_>
        <_>
          1 18 10 3 3.</_></rects>
      <tilted>0</tilted></_>
    <_>
      <rects>
        <_>
          1 20 1 4 -1.</_>
        <_>
          1 22 1 2 2.</_></rects>
      <tilted>0</tilted></_>
    <_>
      <rects>
        <_>
          2 0 3 24 -1.</_>
        <_>
          2 12 3 12 2.</_></rects>
      <tilted>0</tilted></_>
    <_>
      <rects>
        <_>
          2 0 12 6 -1.</_>
        <_>
          2 3 12 3 2.</_></rects>
      <tilted>0</tilted></_>
    <_>
      <rects>
        <_>
          2 0 14 6 -1.</_>
        <_>
          2 3 14 3 2.</_></rects>
      <tilted>0</tilted></_>
    <_>
      <rects>
        <_>
          2 2 10 6 -1.</_>
        <_>
          2 4 10 2 3.</_></rects>
      <tilted>0</tilted></_>
    <_>
      <rects>
        <_>
          2 10 3 1 -1.</_>
        <_>
          3 10 1 1 3.</_></rects>
      <tilted>0</tilted></_>
    <_>
      <rects>
        <_>
          3 0 12 6 -1.</_>
        <_>
          3 3 12 3 2.</_></rects>
      <tilted>0</tilted></_>
    <_>
      <rects>
        <_>
          4 0 1 9 -1.</_>
        <_>
          4 3 1 3 3.</_></rects>
      <tilted>0</tilted></_>
    <_>
      <rects>
        <_>
          4 1 12 22 -1.</_>
        <_>
          4 12 12 11 2.</_></rects>
      <tilted>0</tilted></_>
    <_>
      <rects>
        <_>
          5 3 3 6 -1.</_>
        <_>
          5 5 3 2 3.</_></rects>
      <tilted>0</tilted></_>
    <_>
      <rects>
        <_>
          5 8 2 3 -1.</_>
        <_>
          5 9 2 1 3.</_></rects>
      <tilted>0</tilted></_>
    <_>
      <rects>
        <_>
          5 10 1 2 -1.</_>
        <_>
          5 11 1 1 2.</_></rects>
      <tilted>0</tilted></_>
    <_>
      <rects>
        <_>
          6 12 1 3 -1.</_>
        <_>
          6 13 1 1 3.</_></rects>
      <tilted>0</tilted></_>
    <_>
      <rects>
        <_>
          6 15 6 6 -1.</_>
        <_>
          8 15 2 6 3.</_></rects>
      <tilted>0</tilted></_>
    <_>
      <rects>
        <_>
          6 16 2 1 -1.</_>
        <_>
          7 16 1 1 2.</_></rects>
      <tilted>0</tilted></_>
    <_>
      <rects>
        <_>
          6 16 2 2 -1.</_>
        <_>
          6 16 1 1 2.</_>
        <_>
          7 17 1 1 2.</_></rects>
      <tilted>0</tilted></_>
    <_>
      <rects>
        <_>
          6 21 4 3 -1.</_>
        <_>
          6 22 4 1 3.</_></rects>
      <tilted>0</tilted></_>
    <_>
      <rects>
        <_>
          7 7 1 2 -1.</_>
        <_>
          7 8 1 1 2.</_></rects>
      <tilted>0</tilted></_>
    <_>
      <rects>
        <_>
          8 0 1 2 -1.</_>
        <_>
          8 1 1 1 2.</_></rects>
      <tilted>0</tilted></_>
    <_>
      <rects>
        <_>
          8 4 1 2 -1.</_>
        <_>
          8 5 1 1 2.</_></rects>
      <tilted>0</tilted></_>
    <_>
      <rects>
        <_>
          8 5 2 2 -1.</_>
        <_>
          8 6 2 1 2.</_></rects>
      <tilted>0</tilted></_>
    <_>
      <rects>
        <_>
          8 12 1 3 -1.</_>
        <_>
          8 13 1 1 3.</_></rects>
      <tilted>0</tilted></_>
    <_>
      <rects>
        <_>
          9 7 2 2 -1.</_>
        <_>
          9 7 1 1 2.</_>
        <_>
          10 8 1 1 2.</_></rects>
      <tilted>0</tilted></_>
    <_>
      <rects>
        <_>
          9 10 3 2 -1.</_>
        <_>
          10 10 1 2 3.</_></rects>
      <tilted>0</tilted></_>
    <_>
      <rects>
        <_>
          9 11 5 2 -1.</_>
        <_>
          9 12 5 1 2.</_></rects>
      <tilted>0</tilted></_>
    <_>
      <rects>
        <_>
          9 12 2 3 -1.</_>
        <_>
          10 12 1 3 2.</_></rects>
      <tilted>0</tilted></_>
    <_>
      <rects>
        <_>
          9 19 2 2 -1.</_>
        <_>
          9 19 1 1 2.</_>
        <_>
          10 20 1 1 2.</_></rects>
      <tilted>0</tilted></_>
    <_>
      <rects>
        <_>
          10 2 6 10 -1.</_>
        <_>
          13 2 3 10 2.</_></rects>
      <tilted>0</tilted></_>
    <_>
      <rects>
        <_>
          10 4 6 18 -1.</_>
        <_>
          12 4 2 18 3.</_></rects>
      <tilted>0</tilted></_>
    <_>
      <rects>
        <_>
          10 5 2 2 -1.</_>
        <_>
          10 5 1 1 2.</_>
        <_>
          11 6 1 1 2.</_></rects>
      <tilted>0</tilted></_>
    <_>
      <rects>
        <_>
          10 5 6 17 -1.</_>
        <_>
          13 5 3 17 2.</_></rects>
      <tilted>0</tilted></_>
    <_>
      <rects>
        <_>
          10 6 6 12 -1.</_>
        <_>
          13 6 3 12 2.</_></rects>
      <tilted>0</tilted></_>
    <_>
      <rects>
        <_>
          11 1 3 17 -1.</_>
        <_>
          12 1 1 17 3.</_></rects>
      <tilted>0</tilted></_>
    <_>
      <rects>
        <_>
          11 12 2 2 -1.</_>
        <_>
          11 12 1 1 2.</_>
        <_>
          12 13 1 1 2.</_></rects>
      <tilted>0</tilted></_>
    <_>
      <rects>
        <_>
          14 20 2 2 -1.</_>
        <_>
          15 20 1 2 2.</_></rects>
      <tilted>0</tilted></_>
    <_>
      <rects>
        <_>
          14 20 2 4 -1.</_>
        <_>
          14 20 1 2 2.</_>
        <_>
          15 22 1 2 2.</_></rects>
      <tilted>0</tilted></_>
    <_>
      <rects>
        <_>
          14 20 2 4 -1.</_>
        <_>
          14 22 2 2 2.</_></rects>
      <tilted>0</tilted></_>
    <_>
      <rects>
        <_>
          14 22 2 2 -1.</_>
        <_>
          15 22 1 2 2.</_></rects>
      <tilted>0</tilted></_>
    <_>
      <rects>
        <_>
          15 0 1 6 -1.</_>
        <_>
          15 3 1 3 2.</_></rects>
      <tilted>0</tilted></_>
    <_>
      <rects>
        <_>
          15 1 1 8 -1.</_>
        <_>
          15 5 1 4 2.</_></rects>
      <tilted>0</tilted></_>
    <_>
      <rects>
        <_>
          15 4 1 20 -1.</_>
        <_>
          15 14 1 10 2.</_></rects>
      <tilted>0</tilted></_>
    <_>
      <rects>
        <_>
          15 18 1 6 -1.</_>
        <_>
          15 20 1 2 3.</_></rects>
      <tilted>0</tilted></_></features></cascade>
</opencv_storage>
